network unknown {
}
variable soc {
  type discrete [ 3 ] { LOW SOC, MEDIUM SOC, HIGH SOC };
}
variable price {
  type discrete [ 3 ] { LOW PRICE, MEDIUM PRICE, HIGH PRICE };
}
variable speed {
  type discrete [ 3 ] { SLOW SPEED, MEDIUM SPEED, FAST SPEED };
}
variable wtp {
  type discrete [ 5 ] { VERY LOW WTP, LOW WTP, MEDIUM WTP, HIGH WTP, VERY HIGH WTP };
}
probability ( soc ) {
  table 0.3438003, 0.3220612, 0.3341385;
}
probability ( price ) {
  table 0.3438003, 0.3220612, 0.3341385;
}
probability ( speed ) {
  table 0.3413849, 0.3244767, 0.3341385;
}
probability ( wtp | soc, price, speed ) {
  (LOW SOC, LOW PRICE, SLOW SPEED) 0.167664671, 0.410179641, 0.167664671, 0.248502994, 0.005988024;
  (MEDIUM SOC, LOW PRICE, SLOW SPEED) 0.37104072, 0.24886878, 0.12669683, 0.06561086, 0.18778281;
  (HIGH SOC, LOW PRICE, SLOW SPEED) 0.450331126, 0.360927152, 0.092715232, 0.092715232, 0.003311258;
  (LOW SOC, MEDIUM PRICE, SLOW SPEED) 0.06987952, 0.26506024, 0.26506024, 0.13493976, 0.26506024;
  (MEDIUM SOC, MEDIUM PRICE, SLOW SPEED) 0.1035714, 0.3928571, 0.2000000, 0.2000000, 0.1035714;
  (HIGH SOC, MEDIUM PRICE, SLOW SPEED) 0.276209677, 0.221774194, 0.385080645, 0.112903226, 0.004032258;
  (LOW SOC, HIGH PRICE, SLOW SPEED) 0.128318584, 0.008849558, 0.247787611, 0.128318584, 0.486725664;
  (MEDIUM SOC, HIGH PRICE, SLOW SPEED) 0.28422877, 0.05025997, 0.14384749, 0.42461005, 0.09705373;
  (HIGH SOC, HIGH PRICE, SLOW SPEED) 0.12669683, 0.06561086, 0.18778281, 0.55429864, 0.06561086;
  (LOW SOC, LOW PRICE, MEDIUM SPEED) 0.2268212, 0.1821192, 0.2268212, 0.2268212, 0.1374172;
  (MEDIUM SOC, LOW PRICE, MEDIUM SPEED) 0.200000000, 0.525301205, 0.004819277, 0.004819277, 0.265060241;
  (HIGH SOC, LOW PRICE, MEDIUM SPEED) 0.648221344, 0.221343874, 0.007905138, 0.114624506, 0.007905138;
  (LOW SOC, MEDIUM PRICE, MEDIUM SPEED) 0.1129032, 0.1673387, 0.3850806, 0.1673387, 0.1673387;
  (MEDIUM SOC, MEDIUM PRICE, MEDIUM SPEED) 0.41017964, 0.08682635, 0.16766467, 0.24850299, 0.08682635;
  (HIGH SOC, MEDIUM PRICE, MEDIUM SPEED) 0.126696833, 0.371040724, 0.371040724, 0.126696833, 0.004524887;
  (LOW SOC, HIGH PRICE, MEDIUM SPEED) 0.134939759, 0.004819277, 0.134939759, 0.134939759, 0.590361446;
  (MEDIUM SOC, HIGH PRICE, MEDIUM SPEED) 0.08682635, 0.08682635, 0.08682635, 0.24850299, 0.49101796;
  (HIGH SOC, HIGH PRICE, MEDIUM SPEED) 0.08682635, 0.08682635, 0.49101796, 0.08682635, 0.24850299;
  (LOW SOC, LOW PRICE, FAST SPEED) 0.06561086, 0.24886878, 0.12669683, 0.37104072, 0.18778281;
  (MEDIUM SOC, LOW PRICE, FAST SPEED) 0.30470914, 0.30470914, 0.08033241, 0.15512465, 0.15512465;
  (HIGH SOC, LOW PRICE, FAST SPEED) 0.35309278, 0.42268041, 0.07474227, 0.07474227, 0.07474227;
  (LOW SOC, MEDIUM PRICE, FAST SPEED) 0.17697228, 0.06183369, 0.23454158, 0.17697228, 0.34968017;
  (MEDIUM SOC, MEDIUM PRICE, FAST SPEED) 0.2964286, 0.1035714, 0.2964286, 0.1035714, 0.2000000;
  (HIGH SOC, MEDIUM PRICE, FAST SPEED) 0.35309278, 0.07474227, 0.35309278, 0.07474227, 0.14432990;
  (LOW SOC, HIGH PRICE, FAST SPEED) 0.065610860, 0.004524887, 0.065610860, 0.309954751, 0.554298643;
  (MEDIUM SOC, HIGH PRICE, FAST SPEED) 0.05025997, 0.09705373, 0.23743501, 0.37781629, 0.23743501;
  (HIGH SOC, HIGH PRICE, FAST SPEED) 0.144329897, 0.005154639, 0.213917526, 0.353092784, 0.283505155;
}
